=== Run information ===

Scheme:weka.classifiers.trees.J48 -C 0.25 -M 2
Relation:     reuters-allcats-weka.filters.unsupervised.attribute.NominalToString-Clast-weka.filters.unsupervised.attribute.StringToWordVector-R2-W1000-prune-rate-1.0-N0-stemmerweka.core.stemmers.SnowballStemmer -S porter-M1-O-tokenizerweka.core.tokenizers.WordTokenizer -delimiters " \r\n\t.,;:\'\"()?!"
Instances:    4079
Attributes:   1004
[list of attributes omitted]
Test mode:10-fold cross-validation

=== Classifier model (full training set) ===

J48 pruned tree
------------------

v <= 0
|   coffe <= 0
|   |   gold <= 0
|   |   |   DIVIDEND <= 0
|   |   |   |   QTR <= 0
|   |   |   |   |   LOSS <= 0
|   |   |   |   |   |   NET <= 0
|   |   |   |   |   |   |   split <= 0
|   |   |   |   |   |   |   |   STAKE <= 0
|   |   |   |   |   |   |   |   |   acquir <= 0
|   |   |   |   |   |   |   |   |   |   takeov <= 0
|   |   |   |   |   |   |   |   |   |   |   dividend <= 0
|   |   |   |   |   |   |   |   |   |   |   |   merger <= 0
|   |   |   |   |   |   |   |   |   |   |   |   |   sharehold <= 0
|   |   |   |   |   |   |   |   |   |   |   |   |   |   acquisit <= 0
|   |   |   |   |   |   |   |   |   |   |   |   |   |   |   earn <= 0
|   |   |   |   |   |   |   |   |   |   |   |   |   |   |   |   stake <= 0
|   |   |   |   |   |   |   |   |   |   |   |   |   |   |   |   |   disclos <= 0
|   |   |   |   |   |   |   |   |   |   |   |   |   |   |   |   |   |   BUY <= 0
|   |   |   |   |   |   |   |   |   |   |   |   |   |   |   |   |   |   |   profit <= 0
|   |   |   |   |   |   |   |   |   |   |   |   |   |   |   |   |   |   |   |   GROUP <= 0
|   |   |   |   |   |   |   |   |   |   |   |   |   |   |   |   |   |   |   |   |   ct <= 0
|   |   |   |   |   |   |   |   |   |   |   |   |   |   |   |   |   |   |   |   |   |   CORP <= 0
|   |   |   |   |   |   |   |   |   |   |   |   |   |   |   |   |   |   |   |   |   |   |   subsidiari <= 0
|   |   |   |   |   |   |   |   |   |   |   |   |   |   |   |   |   |   |   |   |   |   |   |   Commerc <= 0
|   |   |   |   |   |   |   |   |   |   |   |   |   |   |   |   |   |   |   |   |   |   |   |   |   share <= 0
|   |   |   |   |   |   |   |   |   |   |   |   |   |   |   |   |   |   |   |   |   |   |   |   |   |   - <= 0
|   |   |   |   |   |   |   |   |   |   |   |   |   |   |   |   |   |   |   |   |   |   |   |   |   |   |   AND <= 0
|   |   |   |   |   |   |   |   |   |   |   |   |   |   |   |   |   |   |   |   |   |   |   |   |   |   |   |   OFFER <= 0
|   |   |   |   |   |   |   |   |   |   |   |   |   |   |   |   |   |   |   |   |   |   |   |   |   |   |   |   |   US <= 0
|   |   |   |   |   |   |   |   |   |   |   |   |   |   |   |   |   |   |   |   |   |   |   |   |   |   |   |   |   |   TWA <= 0
|   |   |   |   |   |   |   |   |   |   |   |   |   |   |   |   |   |   |   |   |   |   |   |   |   |   |   |   |   |   |   CTS <= 0
|   |   |   |   |   |   |   |   |   |   |   |   |   |   |   |   |   |   |   |   |   |   |   |   |   |   |   |   |   |   |   |   A <= 0: Neg- (112.0/28.0)
|   |   |   |   |   |   |   |   |   |   |   |   |   |   |   |   |   |   |   |   |   |   |   |   |   |   |   |   |   |   |   |   A > 0: Pos-acq (5.0/1.0)
|   |   |   |   |   |   |   |   |   |   |   |   |   |   |   |   |   |   |   |   |   |   |   |   |   |   |   |   |   |   |   CTS > 0
|   |   |   |   |   |   |   |   |   |   |   |   |   |   |   |   |   |   |   |   |   |   |   |   |   |   |   |   |   |   |   |   50 <= 0: Pos-earn (2.0)
|   |   |   |   |   |   |   |   |   |   |   |   |   |   |   |   |   |   |   |   |   |   |   |   |   |   |   |   |   |   |   |   50 > 0: Neg- (6.0)
|   |   |   |   |   |   |   |   |   |   |   |   |   |   |   |   |   |   |   |   |   |   |   |   |   |   |   |   |   |   TWA > 0: Pos-acq (2.0)
|   |   |   |   |   |   |   |   |   |   |   |   |   |   |   |   |   |   |   |   |   |   |   |   |   |   |   |   |   US > 0: Neg- (46.0/1.0)
|   |   |   |   |   |   |   |   |   |   |   |   |   |   |   |   |   |   |   |   |   |   |   |   |   |   |   |   OFFER > 0
|   |   |   |   |   |   |   |   |   |   |   |   |   |   |   |   |   |   |   |   |   |   |   |   |   |   |   |   |   BILLION <= 0: Pos-acq (5.0)
|   |   |   |   |   |   |   |   |   |   |   |   |   |   |   |   |   |   |   |   |   |   |   |   |   |   |   |   |   BILLION > 0: Neg- (2.0)
|   |   |   |   |   |   |   |   |   |   |   |   |   |   |   |   |   |   |   |   |   |   |   |   |   |   |   AND > 0
|   |   |   |   |   |   |   |   |   |   |   |   |   |   |   |   |   |   |   |   |   |   |   |   |   |   |   |   OF <= 0: Pos-acq (8.0/1.0)
|   |   |   |   |   |   |   |   |   |   |   |   |   |   |   |   |   |   |   |   |   |   |   |   |   |   |   |   OF > 0: Neg- (3.0/1.0)
|   |   |   |   |   |   |   |   |   |   |   |   |   |   |   |   |   |   |   |   |   |   |   |   |   |   - > 0
|   |   |   |   |   |   |   |   |   |   |   |   |   |   |   |   |   |   |   |   |   |   |   |   |   |   |   UNIT <= 0: Neg- (1311.0/47.0)
|   |   |   |   |   |   |   |   |   |   |   |   |   |   |   |   |   |   |   |   |   |   |   |   |   |   |   UNIT > 0
|   |   |   |   |   |   |   |   |   |   |   |   |   |   |   |   |   |   |   |   |   |   |   |   |   |   |   |   17 <= 0
|   |   |   |   |   |   |   |   |   |   |   |   |   |   |   |   |   |   |   |   |   |   |   |   |   |   |   |   |   1986 <= 0
|   |   |   |   |   |   |   |   |   |   |   |   |   |   |   |   |   |   |   |   |   |   |   |   |   |   |   |   |   |   group <= 0
|   |   |   |   |   |   |   |   |   |   |   |   |   |   |   |   |   |   |   |   |   |   |   |   |   |   |   |   |   |   |   TO <= 0: Neg- (29.0/2.0)
|   |   |   |   |   |   |   |   |   |   |   |   |   |   |   |   |   |   |   |   |   |   |   |   |   |   |   |   |   |   |   TO > 0
|   |   |   |   |   |   |   |   |   |   |   |   |   |   |   |   |   |   |   |   |   |   |   |   |   |   |   |   |   |   |   |   sell <= 0: Neg- (4.0)
|   |   |   |   |   |   |   |   |   |   |   |   |   |   |   |   |   |   |   |   |   |   |   |   |   |   |   |   |   |   |   |   sell > 0: Pos-acq (3.0)
|   |   |   |   |   |   |   |   |   |   |   |   |   |   |   |   |   |   |   |   |   |   |   |   |   |   |   |   |   |   group > 0: Pos-acq (2.0)
|   |   |   |   |   |   |   |   |   |   |   |   |   |   |   |   |   |   |   |   |   |   |   |   |   |   |   |   |   1986 > 0: Pos-acq (3.0)
|   |   |   |   |   |   |   |   |   |   |   |   |   |   |   |   |   |   |   |   |   |   |   |   |   |   |   |   17 > 0: Pos-earn (2.0/1.0)
|   |   |   |   |   |   |   |   |   |   |   |   |   |   |   |   |   |   |   |   |   |   |   |   |   share > 0
|   |   |   |   |   |   |   |   |   |   |   |   |   |   |   |   |   |   |   |   |   |   |   |   |   |   look <= 0
|   |   |   |   |   |   |   |   |   |   |   |   |   |   |   |   |   |   |   |   |   |   |   |   |   |   |   29 <= 0
|   |   |   |   |   |   |   |   |   |   |   |   |   |   |   |   |   |   |   |   |   |   |   |   |   |   |   |   revenu <= 0
|   |   |   |   |   |   |   |   |   |   |   |   |   |   |   |   |   |   |   |   |   |   |   |   |   |   |   |   |   UP <= 0
|   |   |   |   |   |   |   |   |   |   |   |   |   |   |   |   |   |   |   |   |   |   |   |   |   |   |   |   |   |   expir <= 0
|   |   |   |   |   |   |   |   |   |   |   |   |   |   |   |   |   |   |   |   |   |   |   |   |   |   |   |   |   |   |   bid <= 0
|   |   |   |   |   |   |   |   |   |   |   |   |   |   |   |   |   |   |   |   |   |   |   |   |   |   |   |   |   |   |   |   own <= 0
|   |   |   |   |   |   |   |   |   |   |   |   |   |   |   |   |   |   |   |   |   |   |   |   |   |   |   |   |   |   |   |   |   discuss <= 0
|   |   |   |   |   |   |   |   |   |   |   |   |   |   |   |   |   |   |   |   |   |   |   |   |   |   |   |   |   |   |   |   |   |   the <= 0
|   |   |   |   |   |   |   |   |   |   |   |   |   |   |   |   |   |   |   |   |   |   |   |   |   |   |   |   |   |   |   |   |   |   |   common <= 0: Pos-acq (3.0)
|   |   |   |   |   |   |   |   |   |   |   |   |   |   |   |   |   |   |   |   |   |   |   |   |   |   |   |   |   |   |   |   |   |   |   common > 0: Neg- (6.0/1.0)
|   |   |   |   |   |   |   |   |   |   |   |   |   |   |   |   |   |   |   |   |   |   |   |   |   |   |   |   |   |   |   |   |   |   the > 0
|   |   |   |   |   |   |   |   |   |   |   |   |   |   |   |   |   |   |   |   |   |   |   |   |   |   |   |   |   |   |   |   |   |   |   Oct <= 0
|   |   |   |   |   |   |   |   |   |   |   |   |   |   |   |   |   |   |   |   |   |   |   |   |   |   |   |   |   |   |   |   |   |   |   |   agreement <= 0: Neg- (88.0/3.0)
|   |   |   |   |   |   |   |   |   |   |   |   |   |   |   |   |   |   |   |   |   |   |   |   |   |   |   |   |   |   |   |   |   |   |   |   agreement > 0
|   |   |   |   |   |   |   |   |   |   |   |   |   |   |   |   |   |   |   |   |   |   |   |   |   |   |   |   |   |   |   |   |   |   |   |   |   at <= 0: Pos-acq (5.0)
|   |   |   |   |   |   |   |   |   |   |   |   |   |   |   |   |   |   |   |   |   |   |   |   |   |   |   |   |   |   |   |   |   |   |   |   |   at > 0: Neg- (4.0)
|   |   |   |   |   |   |   |   |   |   |   |   |   |   |   |   |   |   |   |   |   |   |   |   |   |   |   |   |   |   |   |   |   |   |   Oct > 0
|   |   |   |   |   |   |   |   |   |   |   |   |   |   |   |   |   |   |   |   |   |   |   |   |   |   |   |   |   |   |   |   |   |   |   |   Commiss <= 0: Pos-acq (2.0)
|   |   |   |   |   |   |   |   |   |   |   |   |   |   |   |   |   |   |   |   |   |   |   |   |   |   |   |   |   |   |   |   |   |   |   |   Commiss > 0: Neg- (2.0)
|   |   |   |   |   |   |   |   |   |   |   |   |   |   |   |   |   |   |   |   |   |   |   |   |   |   |   |   |   |   |   |   |   discuss > 0: Pos-acq (3.0/1.0)
|   |   |   |   |   |   |   |   |   |   |   |   |   |   |   |   |   |   |   |   |   |   |   |   |   |   |   |   |   |   |   |   own > 0
|   |   |   |   |   |   |   |   |   |   |   |   |   |   |   |   |   |   |   |   |   |   |   |   |   |   |   |   |   |   |   |   |   1 <= 0: Pos-acq (5.0)
|   |   |   |   |   |   |   |   |   |   |   |   |   |   |   |   |   |   |   |   |   |   |   |   |   |   |   |   |   |   |   |   |   1 > 0: Neg- (3.0)
|   |   |   |   |   |   |   |   |   |   |   |   |   |   |   |   |   |   |   |   |   |   |   |   |   |   |   |   |   |   |   bid > 0: Pos-acq (3.0)
|   |   |   |   |   |   |   |   |   |   |   |   |   |   |   |   |   |   |   |   |   |   |   |   |   |   |   |   |   |   expir > 0
|   |   |   |   |   |   |   |   |   |   |   |   |   |   |   |   |   |   |   |   |   |   |   |   |   |   |   |   |   |   |   due <= 0: Pos-acq (10.0)
|   |   |   |   |   |   |   |   |   |   |   |   |   |   |   |   |   |   |   |   |   |   |   |   |   |   |   |   |   |   |   due > 0: Neg- (4.0)
|   |   |   |   |   |   |   |   |   |   |   |   |   |   |   |   |   |   |   |   |   |   |   |   |   |   |   |   |   UP > 0: Pos-acq (2.0)
|   |   |   |   |   |   |   |   |   |   |   |   |   |   |   |   |   |   |   |   |   |   |   |   |   |   |   |   revenu > 0: Pos-acq (3.0/1.0)
|   |   |   |   |   |   |   |   |   |   |   |   |   |   |   |   |   |   |   |   |   |   |   |   |   |   |   29 > 0: Pos-acq (3.0/1.0)
|   |   |   |   |   |   |   |   |   |   |   |   |   |   |   |   |   |   |   |   |   |   |   |   |   |   look > 0
|   |   |   |   |   |   |   |   |   |   |   |   |   |   |   |   |   |   |   |   |   |   |   |   |   |   |   For <= 0: Pos-earn (2.0/1.0)
|   |   |   |   |   |   |   |   |   |   |   |   |   |   |   |   |   |   |   |   |   |   |   |   |   |   |   For > 0: Neg- (2.0)
|   |   |   |   |   |   |   |   |   |   |   |   |   |   |   |   |   |   |   |   |   |   |   |   Commerc > 0
|   |   |   |   |   |   |   |   |   |   |   |   |   |   |   |   |   |   |   |   |   |   |   |   |   26 <= 0: Neg- (28.0/1.0)
|   |   |   |   |   |   |   |   |   |   |   |   |   |   |   |   |   |   |   |   |   |   |   |   |   26 > 0: Pos-housing (2.0)
|   |   |   |   |   |   |   |   |   |   |   |   |   |   |   |   |   |   |   |   |   |   |   subsidiari > 0
|   |   |   |   |   |   |   |   |   |   |   |   |   |   |   |   |   |   |   |   |   |   |   |   purchas <= 0
|   |   |   |   |   |   |   |   |   |   |   |   |   |   |   |   |   |   |   |   |   |   |   |   |   sell <= 0
|   |   |   |   |   |   |   |   |   |   |   |   |   |   |   |   |   |   |   |   |   |   |   |   |   |   asset <= 0
|   |   |   |   |   |   |   |   |   |   |   |   |   |   |   |   |   |   |   |   |   |   |   |   |   |   |   1988 <= 0
|   |   |   |   |   |   |   |   |   |   |   |   |   |   |   |   |   |   |   |   |   |   |   |   |   |   |   |   gain <= 0
|   |   |   |   |   |   |   |   |   |   |   |   |   |   |   |   |   |   |   |   |   |   |   |   |   |   |   |   |   dai <= 0
|   |   |   |   |   |   |   |   |   |   |   |   |   |   |   |   |   |   |   |   |   |   |   |   |   |   |   |   |   |   last <= 0: Neg- (39.0/2.0)
|   |   |   |   |   |   |   |   |   |   |   |   |   |   |   |   |   |   |   |   |   |   |   |   |   |   |   |   |   |   last > 0
|   |   |   |   |   |   |   |   |   |   |   |   |   |   |   |   |   |   |   |   |   |   |   |   |   |   |   |   |   |   |   Co <= 0: Pos-acq (3.0)
|   |   |   |   |   |   |   |   |   |   |   |   |   |   |   |   |   |   |   |   |   |   |   |   |   |   |   |   |   |   |   Co > 0: Neg- (2.0)
|   |   |   |   |   |   |   |   |   |   |   |   |   |   |   |   |   |   |   |   |   |   |   |   |   |   |   |   |   dai > 0: Pos-acq (3.0/1.0)
|   |   |   |   |   |   |   |   |   |   |   |   |   |   |   |   |   |   |   |   |   |   |   |   |   |   |   |   gain > 0: Pos-earn (2.0/1.0)
|   |   |   |   |   |   |   |   |   |   |   |   |   |   |   |   |   |   |   |   |   |   |   |   |   |   |   1988 > 0: Pos-earn (2.0/1.0)
|   |   |   |   |   |   |   |   |   |   |   |   |   |   |   |   |   |   |   |   |   |   |   |   |   |   asset > 0: Pos-acq (2.0)
|   |   |   |   |   |   |   |   |   |   |   |   |   |   |   |   |   |   |   |   |   |   |   |   |   sell > 0: Pos-acq (10.0/1.0)
|   |   |   |   |   |   |   |   |   |   |   |   |   |   |   |   |   |   |   |   |   |   |   |   purchas > 0: Pos-acq (8.0)
|   |   |   |   |   |   |   |   |   |   |   |   |   |   |   |   |   |   |   |   |   |   CORP > 0
|   |   |   |   |   |   |   |   |   |   |   |   |   |   |   |   |   |   |   |   |   |   |   April <= 0
|   |   |   |   |   |   |   |   |   |   |   |   |   |   |   |   |   |   |   |   |   |   |   |   issu <= 0
|   |   |   |   |   |   |   |   |   |   |   |   |   |   |   |   |   |   |   |   |   |   |   |   |   BILLION <= 0
|   |   |   |   |   |   |   |   |   |   |   |   |   |   |   |   |   |   |   |   |   |   |   |   |   |   NEW <= 0
|   |   |   |   |   |   |   |   |   |   |   |   |   |   |   |   |   |   |   |   |   |   |   |   |   |   |   MLN <= 0: Pos-acq (13.0)
|   |   |   |   |   |   |   |   |   |   |   |   |   |   |   |   |   |   |   |   |   |   |   |   |   |   |   MLN > 0
|   |   |   |   |   |   |   |   |   |   |   |   |   |   |   |   |   |   |   |   |   |   |   |   |   |   |   |   FOR <= 0: Neg- (2.0)
|   |   |   |   |   |   |   |   |   |   |   |   |   |   |   |   |   |   |   |   |   |   |   |   |   |   |   |   FOR > 0: Pos-acq (2.0)
|   |   |   |   |   |   |   |   |   |   |   |   |   |   |   |   |   |   |   |   |   |   |   |   |   |   NEW > 0: Neg- (2.0)
|   |   |   |   |   |   |   |   |   |   |   |   |   |   |   |   |   |   |   |   |   |   |   |   |   BILLION > 0: Neg- (2.0)
|   |   |   |   |   |   |   |   |   |   |   |   |   |   |   |   |   |   |   |   |   |   |   |   issu > 0: Neg- (3.0)
|   |   |   |   |   |   |   |   |   |   |   |   |   |   |   |   |   |   |   |   |   |   |   April > 0: Neg- (9.0)
|   |   |   |   |   |   |   |   |   |   |   |   |   |   |   |   |   |   |   |   |   ct > 0
|   |   |   |   |   |   |   |   |   |   |   |   |   |   |   |   |   |   |   |   |   |   charg <= 0
|   |   |   |   |   |   |   |   |   |   |   |   |   |   |   |   |   |   |   |   |   |   |   distribut <= 0: Neg- (30.0/1.0)
|   |   |   |   |   |   |   |   |   |   |   |   |   |   |   |   |   |   |   |   |   |   |   distribut > 0: Pos-earn (4.0)
|   |   |   |   |   |   |   |   |   |   |   |   |   |   |   |   |   |   |   |   |   |   charg > 0: Pos-heat (3.0)
|   |   |   |   |   |   |   |   |   |   |   |   |   |   |   |   |   |   |   |   GROUP > 0
|   |   |   |   |   |   |   |   |   |   |   |   |   |   |   |   |   |   |   |   |   Associat <= 0
|   |   |   |   |   |   |   |   |   |   |   |   |   |   |   |   |   |   |   |   |   |   with <= 0
|   |   |   |   |   |   |   |   |   |   |   |   |   |   |   |   |   |   |   |   |   |   |   through <= 0: Pos-acq (16.0/2.0)
|   |   |   |   |   |   |   |   |   |   |   |   |   |   |   |   |   |   |   |   |   |   |   through > 0: Neg- (2.0)
|   |   |   |   |   |   |   |   |   |   |   |   |   |   |   |   |   |   |   |   |   |   with > 0: Neg- (6.0)
|   |   |   |   |   |   |   |   |   |   |   |   |   |   |   |   |   |   |   |   |   Associat > 0: Neg- (2.0/1.0)
|   |   |   |   |   |   |   |   |   |   |   |   |   |   |   |   |   |   |   profit > 0
|   |   |   |   |   |   |   |   |   |   |   |   |   |   |   |   |   |   |   |   700 <= 0
|   |   |   |   |   |   |   |   |   |   |   |   |   |   |   |   |   |   |   |   |   8 <= 0
|   |   |   |   |   |   |   |   |   |   |   |   |   |   |   |   |   |   |   |   |   |   NY <= 0
|   |   |   |   |   |   |   |   |   |   |   |   |   |   |   |   |   |   |   |   |   |   |   exclud <= 0
|   |   |   |   |   |   |   |   |   |   |   |   |   |   |   |   |   |   |   |   |   |   |   |   oper <= 0
|   |   |   |   |   |   |   |   |   |   |   |   |   |   |   |   |   |   |   |   |   |   |   |   |   previou <= 0: Neg- (23.0)
|   |   |   |   |   |   |   |   |   |   |   |   |   |   |   |   |   |   |   |   |   |   |   |   |   previou > 0: Pos-earn (3.0/1.0)
|   |   |   |   |   |   |   |   |   |   |   |   |   |   |   |   |   |   |   |   |   |   |   |   oper > 0
|   |   |   |   |   |   |   |   |   |   |   |   |   |   |   |   |   |   |   |   |   |   |   |   |   be <= 0
|   |   |   |   |   |   |   |   |   |   |   |   |   |   |   |   |   |   |   |   |   |   |   |   |   |   March <= 0: Pos-acq (2.0)
|   |   |   |   |   |   |   |   |   |   |   |   |   |   |   |   |   |   |   |   |   |   |   |   |   |   March > 0: Pos-earn (5.0/1.0)
|   |   |   |   |   |   |   |   |   |   |   |   |   |   |   |   |   |   |   |   |   |   |   |   |   be > 0: Neg- (5.0/1.0)
|   |   |   |   |   |   |   |   |   |   |   |   |   |   |   |   |   |   |   |   |   |   |   exclud > 0: Pos-earn (2.0)
|   |   |   |   |   |   |   |   |   |   |   |   |   |   |   |   |   |   |   |   |   |   NY > 0: Pos-earn (2.0)
|   |   |   |   |   |   |   |   |   |   |   |   |   |   |   |   |   |   |   |   |   8 > 0: Pos-earn (2.0)
|   |   |   |   |   |   |   |   |   |   |   |   |   |   |   |   |   |   |   |   700 > 0: Pos-earn (2.0)
|   |   |   |   |   |   |   |   |   |   |   |   |   |   |   |   |   |   BUY > 0
|   |   |   |   |   |   |   |   |   |   |   |   |   |   |   |   |   |   |   tonn <= 0
|   |   |   |   |   |   |   |   |   |   |   |   |   |   |   |   |   |   |   |   market <= 0
|   |   |   |   |   |   |   |   |   |   |   |   |   |   |   |   |   |   |   |   |   BILLION <= 0: Pos-acq (16.0)
|   |   |   |   |   |   |   |   |   |   |   |   |   |   |   |   |   |   |   |   |   BILLION > 0: Neg- (2.0)
|   |   |   |   |   |   |   |   |   |   |   |   |   |   |   |   |   |   |   |   market > 0: Neg- (4.0)
|   |   |   |   |   |   |   |   |   |   |   |   |   |   |   |   |   |   |   tonn > 0: Neg- (6.0)
|   |   |   |   |   |   |   |   |   |   |   |   |   |   |   |   |   disclos > 0
|   |   |   |   |   |   |   |   |   |   |   |   |   |   |   |   |   |   Reuter <= 0: Neg- (8.0)
|   |   |   |   |   |   |   |   |   |   |   |   |   |   |   |   |   |   Reuter > 0
|   |   |   |   |   |   |   |   |   |   |   |   |   |   |   |   |   |   |   over <= 0
|   |   |   |   |   |   |   |   |   |   |   |   |   |   |   |   |   |   |   |   effect <= 0
|   |   |   |   |   |   |   |   |   |   |   |   |   |   |   |   |   |   |   |   |   ar <= 0: Pos-acq (27.0)
|   |   |   |   |   |   |   |   |   |   |   |   |   |   |   |   |   |   |   |   |   ar > 0: Neg- (3.0/1.0)
|   |   |   |   |   |   |   |   |   |   |   |   |   |   |   |   |   |   |   |   effect > 0: Neg- (2.0)
|   |   |   |   |   |   |   |   |   |   |   |   |   |   |   |   |   |   |   over > 0: Neg- (4.0)
|   |   |   |   |   |   |   |   |   |   |   |   |   |   |   |   stake > 0
|   |   |   |   |   |   |   |   |   |   |   |   |   |   |   |   |   One <= 0
|   |   |   |   |   |   |   |   |   |   |   |   |   |   |   |   |   |   Texa <= 0
|   |   |   |   |   |   |   |   |   |   |   |   |   |   |   |   |   |   |   Trade <= 0
|   |   |   |   |   |   |   |   |   |   |   |   |   |   |   |   |   |   |   |   such <= 0
|   |   |   |   |   |   |   |   |   |   |   |   |   |   |   |   |   |   |   |   |   8 <= 0: Pos-acq (24.0/1.0)
|   |   |   |   |   |   |   |   |   |   |   |   |   |   |   |   |   |   |   |   |   8 > 0: Neg- (2.0/1.0)
|   |   |   |   |   |   |   |   |   |   |   |   |   |   |   |   |   |   |   |   such > 0: Neg- (2.0)
|   |   |   |   |   |   |   |   |   |   |   |   |   |   |   |   |   |   |   Trade > 0: Neg- (2.0)
|   |   |   |   |   |   |   |   |   |   |   |   |   |   |   |   |   |   Texa > 0: Neg- (2.0)
|   |   |   |   |   |   |   |   |   |   |   |   |   |   |   |   |   One > 0: Neg- (3.0)
|   |   |   |   |   |   |   |   |   |   |   |   |   |   |   earn > 0
|   |   |   |   |   |   |   |   |   |   |   |   |   |   |   |   intent <= 0
|   |   |   |   |   |   |   |   |   |   |   |   |   |   |   |   |   UNIT <= 0
|   |   |   |   |   |   |   |   |   |   |   |   |   |   |   |   |   |   share <= 0
|   |   |   |   |   |   |   |   |   |   |   |   |   |   |   |   |   |   |   SEES <= 0
|   |   |   |   |   |   |   |   |   |   |   |   |   |   |   |   |   |   |   |   and <= 0: Pos-earn (3.0/1.0)
|   |   |   |   |   |   |   |   |   |   |   |   |   |   |   |   |   |   |   |   and > 0: Neg- (50.0/2.0)
|   |   |   |   |   |   |   |   |   |   |   |   |   |   |   |   |   |   |   SEES > 0
|   |   |   |   |   |   |   |   |   |   |   |   |   |   |   |   |   |   |   |   15 <= 0: Pos-earn (10.0)
|   |   |   |   |   |   |   |   |   |   |   |   |   |   |   |   |   |   |   |   15 > 0: Neg- (2.0)
|   |   |   |   |   |   |   |   |   |   |   |   |   |   |   |   |   |   share > 0
|   |   |   |   |   |   |   |   |   |   |   |   |   |   |   |   |   |   |   comment <= 0
|   |   |   |   |   |   |   |   |   |   |   |   |   |   |   |   |   |   |   |   40 <= 0: Pos-earn (25.0/1.0)
|   |   |   |   |   |   |   |   |   |   |   |   |   |   |   |   |   |   |   |   40 > 0: Neg- (2.0/1.0)
|   |   |   |   |   |   |   |   |   |   |   |   |   |   |   |   |   |   |   comment > 0: Neg- (2.0)
|   |   |   |   |   |   |   |   |   |   |   |   |   |   |   |   |   UNIT > 0: Pos-acq (2.0)
|   |   |   |   |   |   |   |   |   |   |   |   |   |   |   |   intent > 0: Pos-acq (4.0)
|   |   |   |   |   |   |   |   |   |   |   |   |   |   acquisit > 0
|   |   |   |   |   |   |   |   |   |   |   |   |   |   |   better <= 0
|   |   |   |   |   |   |   |   |   |   |   |   |   |   |   |   Gener <= 0
|   |   |   |   |   |   |   |   |   |   |   |   |   |   |   |   |   Sale <= 0
|   |   |   |   |   |   |   |   |   |   |   |   |   |   |   |   |   |   fall <= 0
|   |   |   |   |   |   |   |   |   |   |   |   |   |   |   |   |   |   |   SEES <= 0
|   |   |   |   |   |   |   |   |   |   |   |   |   |   |   |   |   |   |   |   rate <= 0
|   |   |   |   |   |   |   |   |   |   |   |   |   |   |   |   |   |   |   |   |   DEBT <= 0
|   |   |   |   |   |   |   |   |   |   |   |   |   |   |   |   |   |   |   |   |   |   underwrit <= 0
|   |   |   |   |   |   |   |   |   |   |   |   |   |   |   |   |   |   |   |   |   |   |   42 <= 0
|   |   |   |   |   |   |   |   |   |   |   |   |   |   |   |   |   |   |   |   |   |   |   |   corpor <= 0
|   |   |   |   |   |   |   |   |   |   |   |   |   |   |   |   |   |   |   |   |   |   |   |   |   debt <= 0: Pos-acq (65.0/1.0)
|   |   |   |   |   |   |   |   |   |   |   |   |   |   |   |   |   |   |   |   |   |   |   |   |   debt > 0: Neg- (3.0/1.0)
|   |   |   |   |   |   |   |   |   |   |   |   |   |   |   |   |   |   |   |   |   |   |   |   corpor > 0: Neg- (2.0)
|   |   |   |   |   |   |   |   |   |   |   |   |   |   |   |   |   |   |   |   |   |   |   42 > 0: Neg- (2.0)
|   |   |   |   |   |   |   |   |   |   |   |   |   |   |   |   |   |   |   |   |   |   underwrit > 0: Neg- (8.0/1.0)
|   |   |   |   |   |   |   |   |   |   |   |   |   |   |   |   |   |   |   |   |   DEBT > 0: Neg- (4.0)
|   |   |   |   |   |   |   |   |   |   |   |   |   |   |   |   |   |   |   |   rate > 0: Neg- (10.0)
|   |   |   |   |   |   |   |   |   |   |   |   |   |   |   |   |   |   |   SEES > 0
|   |   |   |   |   |   |   |   |   |   |   |   |   |   |   |   |   |   |   |   30 <= 0: Pos-acq (2.0)
|   |   |   |   |   |   |   |   |   |   |   |   |   |   |   |   |   |   |   |   30 > 0: Pos-earn (2.0)
|   |   |   |   |   |   |   |   |   |   |   |   |   |   |   |   |   |   fall > 0: Pos-earn (2.0)
|   |   |   |   |   |   |   |   |   |   |   |   |   |   |   |   |   Sale > 0: Pos-earn (2.0)
|   |   |   |   |   |   |   |   |   |   |   |   |   |   |   |   Gener > 0: Pos-earn (2.0)
|   |   |   |   |   |   |   |   |   |   |   |   |   |   |   better > 0: Pos-earn (4.0)
|   |   |   |   |   |   |   |   |   |   |   |   |   sharehold > 0
|   |   |   |   |   |   |   |   |   |   |   |   |   |   PAYOUT <= 0
|   |   |   |   |   |   |   |   |   |   |   |   |   |   |   gain <= 0
|   |   |   |   |   |   |   |   |   |   |   |   |   |   |   |   Brazil <= 0
|   |   |   |   |   |   |   |   |   |   |   |   |   |   |   |   |   Europ <= 0
|   |   |   |   |   |   |   |   |   |   |   |   |   |   |   |   |   |   TOKYO <= 0
|   |   |   |   |   |   |   |   |   |   |   |   |   |   |   |   |   |   |   basi <= 0
|   |   |   |   |   |   |   |   |   |   |   |   |   |   |   |   |   |   |   |   lead <= 0
|   |   |   |   |   |   |   |   |   |   |   |   |   |   |   |   |   |   |   |   |   final <= 0
|   |   |   |   |   |   |   |   |   |   |   |   |   |   |   |   |   |   |   |   |   |   initi <= 0
|   |   |   |   |   |   |   |   |   |   |   |   |   |   |   |   |   |   |   |   |   |   |   substanti <= 0
|   |   |   |   |   |   |   |   |   |   |   |   |   |   |   |   |   |   |   |   |   |   |   |   first <= 0: Pos-acq (58.0/3.0)
|   |   |   |   |   |   |   |   |   |   |   |   |   |   |   |   |   |   |   |   |   |   |   |   first > 0: Pos-earn (3.0/1.0)
|   |   |   |   |   |   |   |   |   |   |   |   |   |   |   |   |   |   |   |   |   |   |   substanti > 0: Neg- (2.0/1.0)
|   |   |   |   |   |   |   |   |   |   |   |   |   |   |   |   |   |   |   |   |   |   initi > 0: Neg- (2.0/1.0)
|   |   |   |   |   |   |   |   |   |   |   |   |   |   |   |   |   |   |   |   |   final > 0: Neg- (2.0/1.0)
|   |   |   |   |   |   |   |   |   |   |   |   |   |   |   |   |   |   |   |   lead > 0: Neg- (2.0)
|   |   |   |   |   |   |   |   |   |   |   |   |   |   |   |   |   |   |   basi > 0: Neg- (2.0)
|   |   |   |   |   |   |   |   |   |   |   |   |   |   |   |   |   |   TOKYO > 0: Neg- (2.0)
|   |   |   |   |   |   |   |   |   |   |   |   |   |   |   |   |   Europ > 0: Neg- (2.0)
|   |   |   |   |   |   |   |   |   |   |   |   |   |   |   |   Brazil > 0: Neg- (2.0)
|   |   |   |   |   |   |   |   |   |   |   |   |   |   |   gain > 0: Pos-earn (2.0)
|   |   |   |   |   |   |   |   |   |   |   |   |   |   PAYOUT > 0: Pos-earn (2.0)
|   |   |   |   |   |   |   |   |   |   |   |   merger > 0
|   |   |   |   |   |   |   |   |   |   |   |   |   agenc <= 0
|   |   |   |   |   |   |   |   |   |   |   |   |   |   come <= 0
|   |   |   |   |   |   |   |   |   |   |   |   |   |   |   industri <= 0: Pos-acq (55.0)
|   |   |   |   |   |   |   |   |   |   |   |   |   |   |   industri > 0: Neg- (3.0/1.0)
|   |   |   |   |   |   |   |   |   |   |   |   |   |   come > 0: Neg- (2.0)
|   |   |   |   |   |   |   |   |   |   |   |   |   agenc > 0: Neg- (4.0/1.0)
|   |   |   |   |   |   |   |   |   |   |   dividend > 0
|   |   |   |   |   |   |   |   |   |   |   |   Pai <= 0
|   |   |   |   |   |   |   |   |   |   |   |   |   date <= 0
|   |   |   |   |   |   |   |   |   |   |   |   |   |   UNIT <= 0
|   |   |   |   |   |   |   |   |   |   |   |   |   |   |   led <= 0
|   |   |   |   |   |   |   |   |   |   |   |   |   |   |   |   held <= 0: Pos-earn (37.0/3.0)
|   |   |   |   |   |   |   |   |   |   |   |   |   |   |   |   held > 0: Neg- (2.0/1.0)
|   |   |   |   |   |   |   |   |   |   |   |   |   |   |   led > 0: Neg- (2.0)
|   |   |   |   |   |   |   |   |   |   |   |   |   |   UNIT > 0: Neg- (2.0)
|   |   |   |   |   |   |   |   |   |   |   |   |   date > 0: Neg- (4.0)
|   |   |   |   |   |   |   |   |   |   |   |   Pai > 0: Pos-acq (2.0)
|   |   |   |   |   |   |   |   |   |   takeov > 0
|   |   |   |   |   |   |   |   |   |   |   much <= 0
|   |   |   |   |   |   |   |   |   |   |   |   GROUP <= 0: Pos-acq (44.0)
|   |   |   |   |   |   |   |   |   |   |   |   GROUP > 0
|   |   |   |   |   |   |   |   |   |   |   |   |   18 <= 0: Pos-earn (2.0)
|   |   |   |   |   |   |   |   |   |   |   |   |   18 > 0: Pos-acq (3.0)
|   |   |   |   |   |   |   |   |   |   |   much > 0: Pos-earn (2.0)
|   |   |   |   |   |   |   |   |   acquir > 0
|   |   |   |   |   |   |   |   |   |   past <= 0
|   |   |   |   |   |   |   |   |   |   |   growth <= 0
|   |   |   |   |   |   |   |   |   |   |   |   underwrit <= 0
|   |   |   |   |   |   |   |   |   |   |   |   |   loss <= 0
|   |   |   |   |   |   |   |   |   |   |   |   |   |   dividend <= 0
|   |   |   |   |   |   |   |   |   |   |   |   |   |   |   carri <= 0
|   |   |   |   |   |   |   |   |   |   |   |   |   |   |   |   properti <= 0: Pos-acq (197.0/9.0)
|   |   |   |   |   |   |   |   |   |   |   |   |   |   |   |   properti > 0
|   |   |   |   |   |   |   |   |   |   |   |   |   |   |   |   |   an <= 0: Neg- (3.0)
|   |   |   |   |   |   |   |   |   |   |   |   |   |   |   |   |   an > 0: Pos-acq (3.0)
|   |   |   |   |   |   |   |   |   |   |   |   |   |   |   carri > 0: Neg- (3.0/1.0)
|   |   |   |   |   |   |   |   |   |   |   |   |   |   dividend > 0
|   |   |   |   |   |   |   |   |   |   |   |   |   |   |   compani <= 0: Pos-earn (2.0)
|   |   |   |   |   |   |   |   |   |   |   |   |   |   |   compani > 0: Pos-acq (5.0)
|   |   |   |   |   |   |   |   |   |   |   |   |   loss > 0
|   |   |   |   |   |   |   |   |   |   |   |   |   |   at <= 0: Pos-earn (4.0/1.0)
|   |   |   |   |   |   |   |   |   |   |   |   |   |   at > 0: Pos-acq (3.0)
|   |   |   |   |   |   |   |   |   |   |   |   underwrit > 0: Neg- (4.0/1.0)
|   |   |   |   |   |   |   |   |   |   |   growth > 0
|   |   |   |   |   |   |   |   |   |   |   |   1986 <= 0: Pos-acq (2.0)
|   |   |   |   |   |   |   |   |   |   |   |   1986 > 0: Pos-earn (5.0/1.0)
|   |   |   |   |   |   |   |   |   |   past > 0: Neg- (4.0)
|   |   |   |   |   |   |   |   STAKE > 0: Pos-acq (89.0/1.0)
|   |   |   |   |   |   |   split > 0
|   |   |   |   |   |   |   |   part <= 0
|   |   |   |   |   |   |   |   |   bring <= 0
|   |   |   |   |   |   |   |   |   |   hold <= 0: Pos-earn (50.0/2.0)
|   |   |   |   |   |   |   |   |   |   hold > 0: Neg- (3.0)
|   |   |   |   |   |   |   |   |   bring > 0: Neg- (4.0)
|   |   |   |   |   |   |   |   part > 0: Pos-acq (3.0)
|   |   |   |   |   |   NET > 0
|   |   |   |   |   |   |   previou <= 0
|   |   |   |   |   |   |   |   BANK <= 0: Pos-earn (26.0)
|   |   |   |   |   |   |   |   BANK > 0
|   |   |   |   |   |   |   |   |   - <= 0: Neg- (2.0)
|   |   |   |   |   |   |   |   |   - > 0: Pos-earn (2.0)
|   |   |   |   |   |   |   previou > 0: Neg- (2.0)
|   |   |   |   |   LOSS > 0: Pos-earn (27.0/2.0)
|   |   |   |   QTR > 0
|   |   |   |   |   PCT <= 0: Pos-earn (45.0)
|   |   |   |   |   PCT > 0
|   |   |   |   |   |   1ST <= 0: Neg- (2.0)
|   |   |   |   |   |   1ST > 0: Pos-earn (2.0)
|   |   |   DIVIDEND > 0: Pos-earn (34.0)
|   |   gold > 0
|   |   |   STAKE <= 0
|   |   |   |   earlier <= 0
|   |   |   |   |   Internat <= 0
|   |   |   |   |   |   currenc <= 0
|   |   |   |   |   |   |   import <= 0
|   |   |   |   |   |   |   |   common <= 0
|   |   |   |   |   |   |   |   |   de <= 0
|   |   |   |   |   |   |   |   |   |   econom <= 0: Pos-gold (30.0)
|   |   |   |   |   |   |   |   |   |   econom > 0: Neg- (3.0/1.0)
|   |   |   |   |   |   |   |   |   de > 0: Neg- (3.0)
|   |   |   |   |   |   |   |   common > 0: Neg- (2.0/1.0)
|   |   |   |   |   |   |   import > 0
|   |   |   |   |   |   |   |   1985 <= 0: Pos-acq (2.0)
|   |   |   |   |   |   |   |   1985 > 0: Neg- (2.0)
|   |   |   |   |   |   currenc > 0: Neg- (10.0)
|   |   |   |   |   Internat > 0: Pos-acq (2.0)
|   |   |   |   earlier > 0: Pos-earn (3.0/1.0)
|   |   |   STAKE > 0: Pos-acq (3.0)
|   coffe > 0
|   |   exclud <= 0
|   |   |   manufactur <= 0
|   |   |   |   despit <= 0
|   |   |   |   |   balanc <= 0: Pos-coffee (28.0)
|   |   |   |   |   balanc > 0: Neg- (3.0/1.0)
|   |   |   |   despit > 0: Neg- (2.0)
|   |   |   manufactur > 0: Neg- (3.0)
|   |   exclud > 0: Neg- (5.0)
v > 0
|   WASHINGTON <= 0: Pos-earn (936.0/3.0)
|   WASHINGTON > 0
|   |   US <= 0: Pos-earn (9.0)
|   |   US > 0: Neg- (9.0)

Number of Leaves  : 	176

Size of the tree : 	351


Time taken to build model: 33.28 seconds

=== Stratified cross-validation ===
=== Summary ===

Correctly Classified Instances        3577               87.6931 %
Incorrectly Classified Instances       502               12.3069 %
Kappa statistic                          0.8067
Mean absolute error                      0.0415
Root mean squared error                  0.1794
Relative absolute error                 22.6696 %
Root relative squared error             59.322  %
Total Number of Instances             4079     

=== Detailed Accuracy By Class ===

               TP Rate   FP Rate   Precision   Recall  F-Measure   ROC Area  Class
                 0.904     0.114      0.877     0.904     0.89       0.905    Neg-
                 0.92      0.028      0.938     0.92      0.929      0.95     Pos-earn
                 0.286     0          0.5       0.286     0.364      0.774    Pos-housing
                 0.763     0.049      0.788     0.763     0.776      0.882    Pos-acq
                 0.714     0.001      0.833     0.714     0.769      0.885    Pos-coffee
                 0.706     0.002      0.727     0.706     0.716      0.822    Pos-gold
                 0.75      0          0.75      0.75      0.75       0.852    Pos-heat
Weighted Avg.    0.877     0.072      0.876     0.877     0.876      0.913

=== Confusion Matrix ===

    a    b    c    d    e    f    g   <-- classified as
 1743   53    2  123    5    3    0 |    a = Neg-
   66 1177    0   35    0    1    1 |    b = Pos-earn
    5    0    2    0    0    0    0 |    c = Pos-housing
  157   25    0  603    0    5    0 |    d = Pos-acq
   10    0    0    0   25    0    0 |    e = Pos-coffee
    6    0    0    4    0   24    0 |    f = Pos-gold
    1    0    0    0    0    0    3 |    g = Pos-heat

